tree
version=v4
num_class=1
num_tree_per_iteration=1
label_index=0
max_feature_idx=21
objective=tweedie
feature_names=platform pricing_region_at_signup creation_source active_experiment channel ad_intent targeting_age_bucket targeting_gender targeting_interest nudge_experiment_arm signup_hour_of_day signup_day_of_week is_organic channel_prior_payer_rate_subscription channel_prior_payer_rate_any_revenue channel_prior_avg_ltv_d30 browse_to_chat_latency_minutes n_app_opens_pre_message pre_message_revenue never_activated_flag saw_plans_pre_message purchased_pre_message
feature_infos=-1:0:1:2 -1:0:1 -1:0:3:1:2 -1:1:0:2 -1:3:0:2:5:4:1 -1:0:4:2:3:1 -1:0:1:2:3 -1:1:0:2 -1:1:0:5:2:3:4 none [0:23] [0:6] [0:1] [0.030499999999999999:0.0901] [0.077499999999999999:0.1527] [10.051600000000001:19.329000000000001] [0:10663.223883333332] [0:4] none [0:1] none none
tree_sizes=1609 1684 1673 1664 1672 1704 1659 1683 1649 1693 1686 1694 1694 1689 1712 1662 1734 1688 1717 1689 1701 1722 1700 1701 1692

Tree=0
num_leaves=15
num_cat=4
split_feature=16 3 7 16 6 16 6 11 13 10 16 16 16 11
split_gain=15252.3 8576.18 652.67 618.404 428.572 447.946 341.59 310.473 272.228 268.573 409.276 260.782 337.616 232.576
threshold=1.0000000180025095e-35 0 1 75.550083333333347 2 3.9602500000000007 3 1.0000000180025095e-35 0.075600000000000014 21.500000000000004 2.6144916666666673 5.04 8.6427333333333358 4.5000000000000009
decision_type=2 1 9 2 9 2 9 2 2 2 2 2 2 2
left_child=-1 2 3 4 5 -2 13 8 -8 10 -6 -7 -13 -4
right_child=1 -3 6 -5 9 11 7 -9 -10 -11 -12 12 -14 -15
leaf_value=2.5786782535224968 2.617524554206168 2.6625236438313564 2.7480501749526574 2.5965218077807966 2.7266113623002766 2.7636670291523822 2.7202651673851759 2.7119179824766131 2.7549435976638517 2.7293254567552978 2.6064832407490091 2.6397554646769472 2.7271363853597834 2.7037613134005518
leaf_weight=3425.3271061182022 106.57119238376617 14651.045246124268 1545.1460236310959 171.80543625354767 95.290433049201965 305.09333908557892 1751.0245534181595 9421.2105430364609 836.15733230113983 100.53080809116364 277.04928696155548 142.85565650463104 488.71016609668732 366.79217278957367
leaf_count=1795 45 4459 124 82 13 12 268 1648 52 13 125 52 66 72
internal_value=2.67868 2.69 2.71579 2.68643 2.69661 2.71432 2.71935 2.7161 2.73147 2.65726 2.63723 2.72571 2.70737 2.73924
internal_weight=33684.6 30259.3 15608.2 1687.91 1516.1 1043.23 13920.3 12008.4 2587.18 472.871 372.34 936.659 631.566 1911.94
internal_count=8826 7031 2572 408 326 175 2164 1968 320 151 138 130 118 196
cat_boundaries=0 1 2 3 4
cat_threshold=1 1 5 4
is_linear=0
shrinkage=1


Tree=1
num_leaves=15
num_cat=4
split_feature=16 3 7 16 6 16 6 11 13 16 16 10 16 11
split_gain=14442.6 7817.83 585.587 575.947 394.659 412.361 328.657 294.932 267.654 252.865 308.238 247.323 379.117 224.064
threshold=1.0000000180025095e-35 0 1 75.550083333333347 2 3.9602500000000007 3 1.0000000180025095e-35 0.075600000000000014 5.04 8.6427333333333358 21.500000000000004 2.6144916666666673 4.5000000000000009
decision_type=2 1 9 2 9 2 9 2 2 2 2 2 2 2
left_child=-1 2 3 4 5 -2 13 8 -8 -7 -11 12 -6 -4
right_child=1 -3 6 -5 11 9 7 -9 -10 10 -12 -13 -14 -15
leaf_value=-0.10000000000000001 -0.059203663704418465 -0.015366947764320422 0.067528969422134794 -0.080775442521670793 0.046066012725520744 0.083765293968135465 0.039852437245057278 0.031753295002991282 0.074623063831648476 -0.037259094051227647 0.046582516026158455 0.04874038033284589 -0.070421253489340127 0.023904166751101946
leaf_weight=3258.2719653844833 104.62794458866119 14632.405521869659 1508.8883391618729 166.1506199836731 94.223007559776306 294.34695076942444 1736.2603061199188 9370.4630507230759 812.44226610660553 141.8005256652832 483.11511874198914 99.273530125617981 270.00817394256592 365.66714286804199
leaf_count=1795 45 4459 124 82 13 12 268 1648 52 52 66 13 125 72
internal_value=-7.70256e-06 0.0108236 0.0356326 0.00751534 0.0173779 0.0345134 0.0390032 0.0358252 0.0509362 0.0455554 0.0275579 -0.0207711 -0.0402871 0.058706
internal_weight=33337.9 30079.7 15447.3 1653.55 1487.4 1023.89 13793.7 11919.2 2548.7 919.263 624.916 463.505 364.231 1874.56
internal_count=8826 7031 2572 408 326 175 2164 1968 320 130 118 151 138 196
cat_boundaries=0 1 2 3 4
cat_threshold=1 1 5 4
is_linear=0
shrinkage=0.05


Tree=2
num_leaves=15
num_cat=4
split_feature=16 3 7 16 6 16 6 11 13 16 16 13 16 10
split_gain=13677.8 7121.58 525.277 535.799 363.03 379.178 314.828 279.166 261.86 244.577 281.168 229.798 263.849 354.923
threshold=1.0000000180025095e-35 0 1 75.550083333333347 2 3.9602500000000007 3 1.0000000180025095e-35 0.075600000000000014 5.04 8.6427333333333358 0.047750000000000008 1.421575 21.500000000000004
decision_type=2 1 9 2 9 2 9 2 2 2 2 2 2 2
left_child=-1 2 3 4 5 -2 -4 8 -8 -7 -11 -6 -13 -14
right_child=1 -3 6 -5 11 9 7 -9 -10 10 -12 12 13 -15
leaf_value=-0.10000000000000001 -0.057247332828396474 -0.014615874227492567 0.056844002213197943 -0.079325316866437706 -0.088714749244618821 0.082471132094125404 0.038163096621552706 0.030318598785793682 0.072923096773983287 -0.035643735409932618 0.044739122523187763 0.087930989225552217 -0.059477417100307906 0.059935614594609478
leaf_weight=3099.364138841629 102.83987891674042 14615.56069278717 1839.9866198301315 160.86428046226501 97.242145895957947 284.27552223205566 1722.8162481784821 9324.4021291732788 790.38178634643555 140.84080493450165 478.00409936904907 66.377806663513184 201.12927269935608 90.101770401000977
leaf_count=1795 45 4459 196 82 51 12 268 1648 52 52 66 2 89 9
internal_value=-1.50712e-05 0.010344 0.0341884 0.00728229 0.0168195 0.0333897 0.0373786 0.034276 0.0490949 0.0440804 0.0264451 -0.0201193 -0.00202925 -0.0225331
internal_weight=33014.2 29914.8 15299.3 1621.68 1460.81 1005.96 13677.6 11837.6 2513.2 903.12 618.845 454.851 357.609 291.231
internal_count=8826 7031 2572 408 326 175 2164 1968 320 130 118 151 100 98
cat_boundaries=0 1 2 3 4
cat_threshold=1 1 5 4
is_linear=0
shrinkage=0.05


Tree=3
num_leaves=15
num_cat=6
split_feature=16 3 6 16 7 8 10 16 1 16 13 17 8 11
split_gain=12955.4 6483.62 498.663 548.487 456.455 603.174 343.553 277.008 239.84 273.694 459.39 235.25 329.428 301.93
threshold=1.0000000180025095e-35 0 1 5.2060500000000012 2 3 20.500000000000004 8.6427333333333358 4 167.2072416666667 0.057000000000000009 2.5000000000000004 5 1.5000000000000002
decision_type=2 1 9 2 9 9 2 2 9 2 2 2 9 2
left_child=-1 2 3 -2 6 7 8 -6 -5 11 -11 12 13 -10
right_child=1 -3 -4 4 5 -7 -8 -9 9 10 -12 -13 -14 -15
leaf_value=-0.10000000000000001 0.04249630453015929 -0.013899939718992484 0.039029231749560536 0.071819592746829558 -0.082350814509888182 -0.065015497301715838 -0.071078387296987608 0.031709929391381661 0.02909127901218227 -0.092876503460286267 0.050077398389243057 0.05767602218610527 0.035847144252224607 -0.044916794972059249
leaf_weight=2948.2062643766403 1692.2398368120193 14600.339681625366 10291.929328918457 228.13515186309814 61.228689670562744 427.95553374290466 100.86648225784302 407.49703121185303 233.16982221603394 135.12398862838745 96.216220378875732 407.82949709892273 743.59977579116821 336.98095870018005
leaf_count=1795 249 4459 1563 16 31 194 43 75 41 65 12 43 118 122
internal_value=-2.14458e-05 0.009882 0.0327818 0.0194611 0.00725873 -0.0229674 0.0191361 0.0164593 0.0233082 0.0176412 -0.0334208 0.0245028 0.0142048 -0.0143978
internal_weight=32711.3 29763.1 15162.8 4870.84 3178.6 896.681 2281.92 468.726 2181.06 1952.92 231.34 1721.58 1313.75 570.151
internal_count=8826 7031 2572 1009 760 300 460 106 417 401 77 324 281 163
cat_boundaries=0 1 2 3 4 5 6
cat_threshold=1 3 2 18 2 19
is_linear=0
shrinkage=0.05


Tree=4
num_leaves=15
num_cat=6
split_feature=16 3 6 16 7 8 10 16 5 17 7 16 16 10
split_gain=12272.8 5901.61 448.204 498.038 419.117 557.781 316.595 255.786 232.141 287.358 415.25 290.579 401.229 468.602
threshold=1.0000000180025095e-35 0 1 5.2060500000000012 2 3 20.500000000000004 8.6427333333333358 4 2.5000000000000004 5 162.19497500000003 50.939091666666677 1.5000000000000002
decision_type=2 1 9 2 9 9 2 2 9 2 9 2 2 2
left_child=-1 2 3 -2 6 7 -5 -6 -4 11 -11 12 -10 -14
right_child=1 -3 8 4 5 -7 -8 -9 9 10 -12 -13 13 -15
leaf_value=-0.10000000000000001 0.040739618970850065 -0.013217722009038049 0.048996417204876047 0.022445661230886482 -0.080979939363592671 -0.06317557929236671 -0.069275164766381181 0.030276771251939023 0.034599257779099189 0.071922643677273745 -0.029829721642157171 0.068139921116537716 0.064471679967190762 -0.074170956555831655
leaf_weight=2804.4206660985947 1677.3403298854828 14586.587378501892 3100.0881671905518 2152.8428701162338 59.203855156898499 418.9238189458847 98.381694316864014 405.49942898750305 5715.8964532613754 135.38907265663147 386.52114284038544 604.69877421855927 91.908294200897217 180.91859543323517
leaf_count=1795 249 4459 385 417 31 194 43 75 914 9 123 47 8 77
internal_value=-2.93038e-05 0.00943777 0.0314284 0.0187106 0.00698341 -0.0221978 0.0184373 0.0157633 0.0373645 0.0322349 -0.00343407 0.0351072 0.0317718 -0.0274659
internal_weight=32418.6 29614.2 15027.6 4812.19 3134.85 883.627 2251.22 464.703 10215.4 7115.33 521.91 6593.42 5988.72 272.827
internal_count=8826 7031 2572 1009 760 300 460 106 1563 1178 132 1046 999 85
cat_boundaries=0 1 2 3 4 5 6
cat_threshold=1 3 2 18 11 2
is_linear=0
shrinkage=0.05


Tree=5
num_leaves=15
num_cat=3
split_feature=16 3 6 7 16 10 16 16 11 16 16 16 11 10
split_gain=11628 5370.18 423.109 758.107 487.227 260.452 253.923 253.647 364.977 356.909 441.281 242.081 395.795 230.149
threshold=1.0000000180025095e-35 0 1 2 5.263675000000001 1.0000000180025095e-35 8.8540333333333354 82.17665833333335 1.0000000180025095e-35 61.796650000000007 9.9603000000000019 1.553191666666667 5.5000000000000009 15.500000000000002
decision_type=2 1 9 9 2 2 2 2 2 2 2 2 2 2
left_child=-1 2 3 4 13 -5 -6 9 -9 10 -8 12 -4 -2
right_child=1 -3 11 5 6 -7 7 8 -10 -11 -12 -13 -14 -15
leaf_value=-0.10000000000000001 0.023953289712868264 -0.012567823363655134 -0.08324070896749855 0.035633033885827774 -0.051549406004787683 -0.060702698101708689 0.047766234426603459 0.046541734150581729 -0.082302170990604329 0.087351250943160305 -0.06944112708542606 0.034501653758939613 0.058534134248715897 0.080220191615792719
leaf_weight=2667.6474285125732 318.79948163032532 14574.164012908936 112.06925415992737 84.428176283836365 180.14062631130219 415.17045247554779 207.15143740177155 92.866297960281372 134.66979622840881 194.34194612503052 131.14647197723389 12517.846815109253 87.79152250289917 422.70934653282166
leaf_count=1795 58 4459 50 16 68 188 27 12 62 6 55 2001 9 20
internal_value=-3.6243e-05 0.00901154 0.0301202 0.00961424 0.0257235 -0.0444227 0.00182523 0.0144735 -0.029716 0.0333507 0.00232897 0.0336036 -0.0209642 0.0560292
internal_weight=32140.9 29473.3 14899.1 2181.42 1681.83 499.599 940.317 760.176 227.536 532.64 338.298 12717.7 199.861 741.509
internal_count=8826 7031 2572 512 308 204 230 162 74 88 82 2060 59 78
cat_boundaries=0 1 2 3
cat_threshold=1 2 2
is_linear=0
shrinkage=0.05


Tree=6
num_leaves=15
num_cat=5
split_feature=16 3 7 16 6 6 16 11 4 11 10 16 16 16
split_gain=11018.6 4884.4 396.167 462.251 287.469 283.461 363.657 263.722 271.952 241.09 284.326 315.382 230.827 240.239
threshold=1.0000000180025095e-35 0 1 75.550083333333347 2 3 3.9602500000000007 1.0000000180025095e-35 4 4.5000000000000009 18.500000000000004 4.111250000000001 5.04 8.6427333333333358
decision_type=2 1 9 2 9 9 2 2 1 2 2 2 2 2
left_child=-1 2 3 5 9 6 -2 8 -6 -4 11 -11 -8 -14
right_child=1 -3 4 -5 7 -7 12 -9 -10 10 -12 -13 13 -15
leaf_value=-0.10000000000000001 -0.059107997686806447 -0.011948876776628972 0.060357266334639274 -0.07793663671223805 0.062405750289565277 -0.019576870589218524 0.078972117263551952 0.024804594567597149 0.027763951383696858 0.038985252755491556 0.058070076783959514 -0.095156444013922731 -0.035178218008917676 0.04008992341794855
leaf_weight=2537.5448244810104 104.0665158033371 14562.941698074341 1393.9743473529816 151.868408203125 1060.992527961731 431.65936064720154 262.07932257652283 9077.4485011100769 1342.5936225652695 83.92219090461731 182.47647452354431 91.69259238243103 137.94348156452179 457.99552571773529
leaf_count=1795 45 4459 124 82 90 151 12 1648 230 12 18 42 52 66
internal_value=-4.27284e-05 0.00860184 0.0288525 0.00489888 0.0316503 0.013925 0.0288598 0.028679 0.0434307 0.0506675 0.0143623 -0.0310533 0.0398655 0.0226674
internal_weight=31879.2 29341.7 14778.7 1545.61 13233.1 1393.74 962.085 11481 2403.59 1752.07 358.091 175.615 858.018 595.939
internal_count=8826 7031 2572 408 2164 326 175 1968 320 196 72 54 130 118
cat_boundaries=0 1 2 3 4 5
cat_threshold=1 1 4 5 20
is_linear=0
shrinkage=0.05


Tree=7
num_leaves=15
num_cat=5
split_feature=16 3 6 16 10 6 7 11 16 10 11 4 10 10
split_gain=10442.8 4439.3 371.189 428.055 352.525 341.73 377.614 261.299 353.568 235.835 324.48 219.299 229.414 217.873
threshold=1.0000000180025095e-35 0 1 5.2060500000000012 20.500000000000004 2 3 3.5000000000000004 463.24536666666671 1.5000000000000002 5.5000000000000009 4 5.5000000000000009 2.5000000000000004
decision_type=2 1 9 2 2 9 9 2 2 2 2 1 2 2
left_child=-1 2 3 -2 5 9 7 8 -7 -5 11 -11 -13 -4
right_child=1 -3 13 4 -6 6 -8 -9 -10 10 -12 12 -14 -15
leaf_value=-0.10000000000000001 0.036686149967621179 -0.011359550468716189 0.010457678769229407 0.063718205757594001 -0.064056884432365874 -0.060022646728384858 -0.061734439083642512 0.026203579526302159 0.060565424642475732 0.044403183948697376 -0.062480710891899653 -0.072415696747303152 0.013746408336951489 0.035518238279876754
leaf_weight=2413.7871754169464 1625.2850941419601 14552.805707931519 959.55807888507843 296.36580777168274 174.53741729259491 248.65537643432617 288.00394260883331 528.78936016559601 80.453630328178406 589.81143891811371 124.27996289730072 87.646535158157349 651.6143571138382 9019.1394127607346
leaf_count=1795 249 4459 201 27 77 98 142 98 8 81 51 38 140 1362
internal_value=-4.68179e-05 0.00820809 0.0276139 0.0159033 0.00495302 0.00911268 -0.0120908 0.00443401 -0.0305438 0.022937 0.0147788 0.0220032 0.00348393 0.0330753
internal_weight=31640.7 29226.9 14674.1 4695.44 3070.16 2895.62 1145.9 857.898 329.109 1749.72 1453.35 1329.07 739.261 9978.7
internal_count=8826 7031 2572 1009 760 683 346 204 106 337 310 259 178 1563
cat_boundaries=0 1 2 3 4 5
cat_threshold=1 3 1 2 34
is_linear=0
shrinkage=0.05


Tree=8
num_leaves=15
num_cat=6
split_feature=16 3 7 16 6 11 4 6 16 0 11 10 16 16
split_gain=9898.18 4033.05 338.682 416.794 274.001 248.575 264.378 242.221 337.429 235.912 225.303 262.54 292.778 220.713
threshold=1.0000000180025095e-35 0 1 75.550083333333347 2 1.0000000180025095e-35 3 4 3.9602500000000007 5 4.5000000000000009 18.500000000000004 4.111250000000001 5.04
decision_type=2 1 9 2 9 2 1 9 2 1 2 2 2 2
left_child=-1 2 3 7 10 6 -6 8 -2 -8 -4 12 -12 -10
right_child=1 -3 4 -5 5 -7 9 -9 13 -11 11 -13 -14 -15
leaf_value=-0.10000000000000001 -0.058329662628008289 -0.010798545457965839 0.057326461445938018 -0.076182809037225352 0.059681263282001601 0.022361736514919423 0.077073309159742504 -0.018456343888913471 0.07672146844951408 0.0168177310854133 0.035871866200688954 0.054884376524787504 -0.094850018998167904 0.020659935656912137
leaf_weight=2296.0654932260513 103.3343780040741 14543.650640487671 1356.1007504463196 146.29412889480591 1026.8275963068008 8999.8826123476028 189.46918046474457 427.08928608894348 250.53742098808289 1138.7356637716293 82.706141710281372 177.715980052948 88.847094297409058 586.69080305099487
leaf_count=1795 45 4459 124 82 90 1648 10 151 12 220 12 18 42 118
internal_value=-5.20069e-05 0.00782931 0.0264181 0.00403116 0.0290132 0.026123 0.040608 0.0126114 0.0266317 0.0252233 0.0478229 0.0122928 -0.0318287 0.0374361
internal_weight=31413.9 29117.9 14574.2 1513.95 13060.3 11354.9 2355.03 1367.65 940.563 1328.2 1705.37 349.269 171.553 837.228
internal_count=8826 7031 2572 408 2164 1968 320 326 175 230 196 72 54 130
cat_boundaries=0 1 2 3 4 5 6
cat_threshold=1 1 4 20 5 4
is_linear=0
shrinkage=0.05


Tree=9
num_leaves=15
num_cat=5
split_feature=16 3 6 16 10 6 11 1 8 16 11 16 11 16
split_gain=9383.43 3662.46 321.638 381.157 320.87 308.819 336.123 353.249 226.675 255.187 266.91 274.387 645.754 370.785
threshold=1.0000000180025095e-35 0 1 5.2060500000000012 20.500000000000004 2 3.5000000000000004 3 4 617.01349166666671 1.0000000180025095e-35 4.4000416666666675 5.5000000000000009 2.4941083333333336
decision_type=2 1 9 2 2 9 2 9 9 2 2 2 2 2
left_child=-1 2 3 -2 5 -5 7 -7 -4 10 -10 13 -13 -12
right_child=1 -3 8 4 -6 6 -8 -9 9 -11 11 12 -14 -15
leaf_value=-0.10000000000000001 0.034053920179225254 -0.0102646085558925 0.047510906147382855 0.021109717662965214 -0.062466743945323359 0.049685138561698844 0.010428714485000807 -0.064838775434114579 0.042934198184627431 0.075846420361273065 -0.0021932446116771907 0.021106080948277157 -0.036438347001803505 0.050151833690444271
leaf_weight=2184.0849125385284 1599.4670798778534 14535.383174419403 1642.627009510994 1725.4522963762283 171.89081311225891 81.510030031204224 661.45891010761261 387.13109183311462 1695.3405793905258 258.16339302062988 451.40603399276733 3901.6258758306503 557.14768016338348 1350.2530474662781
leaf_count=1795 249 4459 197 337 77 10 159 177 213 14 107 704 175 153
internal_value=-5.56121e-05 0.00746664 0.0252614 0.0142794 0.0038793 0.00787301 -0.0124139 -0.0449198 0.0303713 0.0268902 0.0253353 0.0205695 0.0139156 0.0370368
internal_weight=31202.9 29018.9 14483.5 4626.91 3027.44 2855.55 1130.1 468.641 9856.56 8213.94 7955.77 6260.43 4458.77 1801.66
internal_count=8826 7031 2572 1009 760 683 346 187 1563 1366 1352 1139 879 260
cat_boundaries=0 1 2 3 4 5
cat_threshold=1 3 1 2 50
is_linear=0
shrinkage=0.05


Tree=10
num_leaves=15
num_cat=5
split_feature=16 3 7 16 6 13 16 16 10 16 11 4 0 16
split_gain=8896.88 3326.95 303.338 379.033 245.3 243.191 283.492 294.773 320.932 236.541 216.788 255.265 227.045 214.047
threshold=1.0000000180025095e-35 0 1 75.550083333333347 2 0.057000000000000009 5.0983333333333336 3.9602500000000007 1.0000000180025095e-35 10.353408333333336 1.0000000180025095e-35 3 4 10.503641666666669
decision_type=2 1 9 2 9 2 2 2 2 2 2 1 1 2
left_child=-1 2 3 5 -4 6 7 8 -2 -8 11 -6 -13 -11
right_child=1 -3 4 -5 10 -7 9 -9 -10 13 -12 12 -14 -15
leaf_value=-0.10000000000000001 0.07062215519229402 -0.0097565213708684356 0.044688239654865076 -0.074938076060828238 0.056683166146394987 0.047188889692826919 -0.056746302237287875 0.061192475355013147 -0.066021195782164199 0.072350596118137947 0.020399237077093589 0.074659666869409474 0.014368751667020778 -0.024233822798377321
leaf_weight=2077.5659745931625 64.860103607177734 14527.91690158844 1658.1665691137314 141.84786474704742 994.49931013584137 345.15693759918213 290.18797326087952 268.69420576095581 127.32871925830841 88.043850421905518 8933.217175245285 181.16417574882507 1131.0224761962891 164.61655950546265
leaf_count=1795 5 4459 196 82 90 49 130 24 58 6 1648 10 220 54
internal_value=-5.86369e-05 0.0071218 0.0241633 0.00280911 0.0266314 0.0109849 -0.00146466 0.027374 -0.0199066 -0.025949 0.0239065 0.037593 0.0225211 0.00942267
internal_weight=30994.3 28916.7 14388.8 1490.74 12898.1 1348.89 1003.73 460.883 192.189 542.848 11239.9 2306.69 1312.19 252.66
internal_count=8826 7031 2572 408 2164 326 277 87 63 190 1968 320 230 60
cat_boundaries=0 1 2 3 4 5
cat_threshold=1 1 4 20 4
is_linear=0
shrinkage=0.05


Tree=11
num_leaves=15
num_cat=4
split_feature=16 3 6 16 10 6 11 16 16 1 10 11 16 16
split_gain=8436.58 3019.69 282.87 336.305 292.164 277.001 310.895 349.944 357.67 314.978 221.918 288.841 212.022 210.948
threshold=1.0000000180025095e-35 0 1 5.2060500000000012 20.500000000000004 2 3.5000000000000004 82.17665833333335 61.796650000000007 3 1.5000000000000002 5.5000000000000009 6.7638333333333334 9.6568666666666676
decision_type=2 1 9 2 2 9 2 2 2 9 2 2 2 2
left_child=-1 2 3 -2 5 10 9 8 13 -7 -5 12 -12 -8
right_child=1 -3 -4 4 -6 6 7 -9 -10 -11 11 -13 -14 -15
leaf_value=-0.10000000000000001 0.031466248325135247 -0.0092731145180284785 0.027911605328436114 0.059928079434727048 -0.061048330467209679 0.046350369917348956 0.021128513366777842 -0.074990798797785682 0.083511919550381231 -0.063220425805007432 -0.070973088528980446 -0.061776485983391187 0.022885749310542946 -0.0617230989522125
leaf_weight=1976.2418454885483 1575.1572328805923 14521.175516605377 9737.5863306522369 282.50476741790771 168.42049968242645 79.288216114044189 269.32588982582092 103.68784248828888 177.91014409065247 379.61298286914825 63.234196424484253 123.13329720497131 1241.1914970874786 107.48854792118073
leaf_count=1795 249 4459 1563 27 77 10 57 49 7 177 27 51 232 46
internal_value=-6.07958e-05 0.00678991 0.0230917 0.0127347 0.00292836 0.0067393 -0.0125842 0.00932229 0.0250819 -0.044289 0.0193254 0.0114257 0.0183358 -0.0025054
internal_weight=30806 28829.7 14308.5 4570.96 2995.8 2827.38 1117.31 658.412 554.725 458.901 1710.06 1427.56 1304.43 376.814
internal_count=8826 7031 2572 1009 760 683 346 159 110 187 337 310 259 103
cat_boundaries=0 1 2 3 4
cat_threshold=1 3 1 2
is_linear=0
shrinkage=0.05


Tree=12
num_leaves=15
num_cat=5
split_feature=16 3 6 7 10 11 11 4 0 16 13 10 16 16
split_gain=8000.82 2739.88 266.154 314.935 337.826 339.416 202.269 242.633 216.023 186.85 184.822 229.33 184.19 353.985
threshold=1.0000000180025095e-35 0 1 2 18.500000000000004 2.5000000000000004 1.0000000180025095e-35 3 4 3.3965666666666672 0.057000000000000009 15.500000000000002 617.01349166666671 355.60996666666671
decision_type=2 1 9 9 2 2 2 1 1 2 2 2 2 2
left_child=-1 2 -2 4 5 -4 7 -5 -9 -3 11 -10 13 -8
right_child=1 9 3 6 -6 -7 12 8 10 -11 -12 -13 -14 -15
leaf_value=-0.10000000000000001 0.038962563768030256 -0.02335070223447638 -0.081611293139277452 0.053979757446616997 0.036801485009502914 -0.0050640076010063 0.018221090640048097 0.072369817331538744 -0.079861258818224853 -0.0065995192531845522 0.022158440058952414 0.025665165475449472 0.057770515784538005 -0.069123706763686343
leaf_weight=1879.8593860864639 2010.9560121297836 1918.2217411994934 194.37170517444611 968.37164783477783 317.51532256603241 567.99043691158295 8465.961679816246 174.29191017150879 109.34782350063324 12596.866062164307 918.86571931838989 97.294471263885498 286.61337530612946 117.60950481891632
leaf_count=1795 264 668 105 90 58 177 1572 10 45 3791 157 18 29 47
internal_value=-6.48361e-05 0.00647087 0.0220621 0.0192329 -0.00653241 -0.0245805 0.0217481 0.0350727 0.0204142 -0.00881325 0.0125499 -0.0301757 0.0183409 0.0170243
internal_weight=30624.1 28744.3 14229.2 12218.2 1079.88 762.362 11138.4 2268.17 1299.8 14515.1 1125.51 206.642 8870.18 8583.57
internal_count=8826 7031 2572 2308 340 282 1968 320 230 4459 220 63 1648 1619
cat_boundaries=0 1 2 3 4 5
cat_threshold=1 4 1 20 4
is_linear=0
shrinkage=0.05


Tree=13
num_leaves=15
num_cat=5
split_feature=16 3 6 7 16 10 11 16 16 11 17 16 8 1
split_gain=7588.69 2484.94 243.881 285.231 320.921 232.248 325.419 199.72 411.84 521.611 399.235 387.576 280.319 239.604
threshold=1.0000000180025095e-35 0 1 2 75.550083333333347 18.500000000000004 2.5000000000000004 158.34447500000005 10.896691666666669 5.5000000000000009 2.5000000000000004 11.235633333333334 3 4
decision_type=2 1 9 9 2 2 2 2 2 2 2 2 9 9
left_child=-1 2 -2 4 5 6 -4 8 12 11 -9 -10 -5 -13
right_child=1 -3 3 7 -6 -7 -8 10 9 -11 -12 13 -14 -15
leaf_value=-0.10000000000000001 0.037307498733397802 -0.0083773116724367418 -0.076417964791623216 -0.0055169978040119473 -0.087605682027925139 0.038811615433032187 0.0059754012638933872 0.057653701510646693 -0.09545770049040582 -0.088552054055478113 0.0053398627718297146 0.077453287136555082 0.026536781251780685 0.0054576544492293084
leaf_weight=1788.1775471568108 1995.9968078136444 14507.314535498619 157.87908947467804 760.79843139648438 108.93291342258453 307.21212470531464 497.37290298938751 945.09545016288757 90.548396110534668 160.99743127822876 593.86382675170898 124.5962610244751 6823.008966088295 1594.0740731954575
leaf_count=1795 264 4459 83 186 73 52 132 90 40 72 132 6 1100 342
internal_value=-6.70082e-05 0.00616642 0.0210665 0.0183558 -0.00626522 0.002941 -0.0138768 0.0207503 0.0180577 -0.00230934 0.0374665 0.00536516 0.0233489 0.010677
internal_weight=30455.9 28667.7 14160.4 12164.4 1071.4 962.464 655.252 11093 9554.02 1970.22 1538.96 1809.22 7583.81 1718.67
internal_count=8826 7031 2572 2308 340 267 215 1968 1746 460 222 388 1286 348
cat_boundaries=0 1 2 3 4 5
cat_threshold=1 4 1 18 2
is_linear=0
shrinkage=0.05


Tree=14
num_leaves=15
num_cat=3
split_feature=16 3 6 7 16 10 11 16 11 16 10 11 10 16
split_gain=7198.69 2254.71 222.671 258.377 301.766 211.311 303.552 193.895 348.321 259.357 598.499 328.979 302.122 481.32
threshold=1.0000000180025095e-35 0 1 2 75.550083333333347 18.500000000000004 2.5000000000000004 1.553191666666667 5.5000000000000009 4.4000416666666675 22.500000000000004 5.5000000000000009 11.500000000000002 251.61998333333335
decision_type=2 1 9 9 2 2 2 2 2 2 2 2 2 2
left_child=-1 2 -2 4 5 6 -4 8 -5 -9 11 -11 -13 -14
right_child=1 -3 3 7 -6 -7 -8 9 -10 10 -12 12 13 -15
leaf_value=-0.10000000000000001 0.035700085725509943 -0.0079612402189389014 -0.074781368812493892 -0.08455638403413003 -0.086547218642697252 0.037151053970364285 0.0056776451971445987 0.034218489305947224 0.049386996696639159 0.021595805736978935 -0.096265218713059028 0.011559672890744546 -0.085177856416033204 0.045186459838521729
leaf_weight=1700.967048406601 1982.3830487728119 14502.350904226303 153.38339006900787 116.9795606136322 104.85593032836914 304.9559919834137 497.28632664680481 2676.1577022075653 82.959086656570435 7103.541999578476 116.43753027915955 600.67549765110016 243.34285974502563 99.859191298484802
leaf_count=1795 264 4459 83 49 73 52 132 373 9 1240 54 124 106 13
internal_value=-6.97154e-05 0.00587666 0.0201268 0.0175315 -0.00602779 0.0028072 -0.0132891 0.0198104 -0.0289802 0.0207103 0.0162823 0.0179107 -0.00982281 -0.0472466
internal_weight=30286.1 28585.2 14082.8 12100.4 1060.48 955.626 650.67 11040 199.939 10840 8163.86 8047.42 943.878 343.202
internal_count=8826 7031 2572 2308 340 267 215 1968 58 1910 1537 1483 243 119
cat_boundaries=0 1 2 3
cat_threshold=1 4 1
is_linear=0
shrinkage=0.05


Tree=15
num_leaves=15
num_cat=6
split_feature=16 3 6 7 16 8 16 16 17 16 11 16 8 1
split_gain=6829.33 2044.91 203.081 234.003 283.468 201.652 238.99 185.332 373.324 365.362 466.805 361.08 253.967 226.15
threshold=1.0000000180025095e-35 0 1 2 75.550083333333347 3 5.04 158.34447500000005 2.5000000000000004 10.896691666666669 5.5000000000000009 11.235633333333334 4 5
decision_type=2 1 9 9 2 9 2 2 2 2 2 2 9 9
left_child=-1 2 -2 4 5 6 -4 9 -9 12 11 -11 -5 -13
right_child=1 -3 3 7 -6 -7 -8 8 -10 10 -12 13 -14 -15
leaf_value=-0.10000000000000001 0.034141800712494043 -0.0075655791732604782 0.010864588891951864 -0.0061795830450868724 -0.085419709721339096 0.021139912056949987 -0.069186635421717685 0.055013231570957201 0.0041527380324890778 -0.095106198133803194 -0.087106356946419827 0.075394525857508082 0.024366911040888874 0.0042053061995249328
leaf_weight=1618.0099505186081 1970.001748919487 14497.869983315468 201.63386535644531 758.45874130725861 101.02582156658173 574.24848544597626 173.43064022064209 923.42517066001892 592.17073130607605 87.206541538238525 152.01563775539398 119.96782565116882 6763.1512621641159 1591.8075711727142
leaf_count=1795 264 4459 48 186 73 129 90 90 132 40 72 6 1100 342
internal_value=-7.3585e-05 0.00559819 0.0192218 0.016738 -0.00579532 0.0026783 -0.0254721 0.0189071 0.0351411 0.0163097 -0.00297102 0.00413849 0.0213109 0.00919452
internal_weight=30124.4 28506.4 14008.5 12038.5 1050.34 949.313 375.065 10988.2 1515.6 9472.61 1951 1798.98 7521.61 1711.78
internal_count=8826 7031 2572 2308 340 267 138 1968 222 1746 460 388 1286 348
cat_boundaries=0 1 2 3 4 5 6
cat_threshold=1 4 1 37 18 2
is_linear=0
shrinkage=0.05


Tree=16
num_leaves=15
num_cat=2
split_feature=16 3 7 16 16 11 11 16 10 16 13 16 16 10
split_gain=6479.84 1854.25 186.021 278.513 225.397 315.102 241.086 617.536 355.682 372.284 221.915 233.39 269.185 301.911
threshold=1.0000000180025095e-35 0 1 75.550083333333347 1.553191666666667 5.5000000000000009 5.5000000000000009 5.8537583333333343 7.5000000000000009 251.61998333333335 0.057000000000000009 5.0983333333333336 3.9602500000000007 1.0000000180025095e-35
decision_type=2 1 9 2 2 2 2 2 2 2 2 2 2 2
left_child=-1 2 3 10 5 -4 -6 -8 -9 -10 11 12 13 -2
right_child=1 -3 4 -5 6 -7 7 8 9 -11 -12 -13 -14 -15
leaf_value=-0.10000000000000001 0.067852261130404212 -0.0071893592763349022 -0.084344107828075207 -0.070250770029459939 0.023827298269373076 0.042142920981927762 0.035548273378690008 0.009910763678237039 -0.082312059957992692 0.021994791969870031 0.043610835872994941 -0.026586901100976668 0.056656092580877719 -0.067235906263563641
leaf_weight=1539.0986922383308 61.786897659301758 14493.824658274651 118.91896867752075 124.51959550380707 10751.728969931602 84.030327796936035 753.54258692264557 361.74877023696899 344.47626972198486 113.80520915985107 327.39651143550873 523.44901323318481 251.3886387348175 125.10765933990479
leaf_count=1795 5 4459 51 82 1751 10 103 76 152 21 49 190 24 58
internal_value=-7.53146e-05 0.00533316 0.0183514 0.00115793 0.0202915 -0.0319727 0.0211521 0.00287303 -0.0271529 -0.0564095 0.00805544 -0.00404846 0.0228696 -0.0225761
internal_weight=29974.8 28435.7 13941.9 1413.65 12528.3 202.949 12325.3 1573.57 820.03 458.281 1289.13 961.732 438.283 186.895
internal_count=8826 7031 2572 408 2164 61 2103 352 249 173 326 277 87 63
cat_boundaries=0 1 2
cat_threshold=1 1
is_linear=0
shrinkage=0.05


Tree=17
num_leaves=15
num_cat=6
split_feature=16 3 6 7 16 10 11 11 4 0 16 16 4 16
split_gain=6148.73 1680.9 190.958 198.064 249.046 184.778 273.775 177.563 229.244 203.533 174.303 170.409 167.851 167.169
threshold=1.0000000180025095e-35 0 1 2 75.550083333333347 18.500000000000004 2.5000000000000004 1.0000000180025095e-35 3 4 1.8464000000000003 3.3965666666666672 5 10.353408333333336
decision_type=2 1 9 9 2 2 2 2 1 1 2 2 1 2
left_child=-1 2 10 4 5 6 -4 8 -5 -10 -2 -3 -13 -8
right_child=1 11 3 7 -6 -7 13 -9 9 -11 -12 12 -14 -15
leaf_value=-0.10000000000000001 -0.078772518030913577 -0.020761102814154029 -0.072775437029625079 0.048611423040071086 -0.083170449347661934 0.034622234402420994 -0.015675634733782549 0.013884203600058057 0.067927973224071264 0.0080593804796819293 0.034239260024357808 0.0062950420042155973 -0.0077411353383850332 0.046520430691247651
leaf_weight=1464.0359833836555 34.738689661026001 1906.7378082275391 148.01986706256866 926.54018402099609 94.608348369598389 295.80994701385498 327.49836695194244 8699.5113196372986 162.75469994544983 1111.2884827852249 1912.9172229766846 2708.6137343645096 9874.82124376297 161.22033619880676
leaf_count=1795 13 668 83 90 73 52 107 1648 10 220 251 730 3061 25
internal_value=-7.85748e-05 0.00507877 0.0175174 0.0151033 -0.00587343 0.00196846 -0.0132015 0.0170938 0.0297823 0.0155851 0.032059 -0.00683166 -0.00472096 0.00484183
internal_weight=29829.1 28365.1 13874.9 11927.3 1027.16 932.549 636.739 10900.1 2200.58 1274.04 1947.66 14490.2 12583.4 488.719
internal_count=8826 7031 2572 2308 340 267 215 1968 320 230 264 4459 3791 132
cat_boundaries=0 1 2 3 4 5 6
cat_threshold=1 4 1 20 4 48
is_linear=0
shrinkage=0.05


Tree=18
num_leaves=15
num_cat=3
split_feature=16 3 6 16 11 16 16 10 10 16 16 16 16 0
split_gain=5835.24 1522.18 175.276 477.085 255.115 299.909 385.284 245.514 228.365 221.221 207.77 530.603 191.83 560.401
threshold=1.0000000180025095e-35 0 1 5.2060500000000012 3.5000000000000004 82.17665833333335 61.796650000000007 19.500000000000004 1.0000000180025095e-35 463.24536666666671 134.36264166666669 107.93626666666668 10.896691666666669 2
decision_type=2 1 9 2 2 2 2 2 2 2 2 2 2 1
left_child=-1 2 3 7 9 6 -6 8 -2 -5 11 12 -4 -14
right_child=1 -3 10 4 5 -7 -8 -9 -10 -11 -12 -13 13 -15
leaf_value=-0.10000000000000001 0.072932848907531198 -0.0064936285537275477 0.020822427434542466 -0.059448663325637599 -0.0095467625765417227 -0.074367940027933163 0.080849111841434271 0.067856042090808588 -0.0063252886937283058 0.033630080834268099 0.034359213856306657 -0.072129267573734543 0.011576387258852273 -0.087629766604597537
leaf_weight=1392.6340559124947 116.91816782951355 14482.75292801857 8144.6955939531326 414.36680310964584 408.04196858406067 107.6877304315567 165.76042509078979 302.82214403152466 408.13220226764679 75.461099982261658 1861.138799905777 167.31627893447876 1499.4812390804291 157.28274261951447
leaf_count=1795 7 4459 1362 191 120 55 7 20 97 15 268 68 295 67
internal_value=-7.96569e-05 0.00483533 0.0166998 0.00293438 -0.0175855 0.00219752 0.0165669 0.0320024 0.0113239 -0.0451093 0.0190075 0.0161604 0.0176676 0.00215838
internal_weight=29704.5 28311.9 13829.1 1999.19 1171.32 681.49 573.802 827.873 525.05 489.828 11829.9 9968.78 9801.46 1656.76
internal_count=8826 7031 2572 512 388 182 127 124 104 206 2060 1792 1724 362
cat_boundaries=0 1 2 3
cat_threshold=1 2 1
is_linear=0
shrinkage=0.05


Tree=19
num_leaves=15
num_cat=4
split_feature=16 3 6 7 16 13 16 16 16 16 10 10 11 4
split_gain=5538.35 1379.89 170.35 173.111 226.426 179.724 260.544 242.899 172.235 348.566 170.773 258.133 165.822 214.129
threshold=1.0000000180025095e-35 0 1 2 75.550083333333347 0.057000000000000009 5.04 4.9802833333333343 10.353408333333336 10.503641666666669 1.5000000000000002 21.500000000000004 1.0000000180025095e-35 3
decision_type=2 1 9 9 2 2 2 2 2 2 2 2 2 1
left_child=-1 2 -2 4 5 6 7 10 -8 -10 -4 -12 13 -5
right_child=1 -3 3 12 -6 -7 8 -9 9 -11 11 -13 -14 -15
leaf_value=-0.10000000000000001 0.029739883852227447 -0.0061702495836270339 0.062356248173530485 0.046268883866409989 -0.081470159592362951 0.03664142856345276 -0.073465839787302159 0.084329744319939712 0.078458772289982853 -0.076212414558913089 -0.082221759019349569 0.052102131458316617 0.012413021188930144 0.014155677422114149
leaf_weight=1324.7145569324493 1928.3175823688507 14479.775843858719 60.004995703697205 908.89943218231201 90.744589865207672 258.78547191619873 196.00887548923492 100.44563603401184 70.271503567695618 75.627558469772339 105.30574727058411 54.162707924842834 8650.7192215919495 1264.9346162080765
leaf_count=1795 264 4459 6 90 73 44 110 3 4 41 53 6 1648 230
internal_value=-8.14904e-05 0.00460494 0.0159403 0.0136554 -0.00611574 0.00131193 -0.0125025 0.0199294 -0.0428487 -0.00171586 -0.00954441 -0.0365993 0.0155152 0.0278605
internal_weight=29568.7 28244 13764.2 11835.9 1011.36 920.612 661.827 319.919 341.908 145.899 219.473 159.468 10824.6 2173.83
internal_count=8826 7031 2572 2308 340 267 223 68 155 45 65 59 1968 320
cat_boundaries=0 1 2 3 4
cat_threshold=1 4 1 20
is_linear=0
shrinkage=0.05


Tree=20
num_leaves=15
num_cat=4
split_feature=16 3 10 16 6 16 7 16 8 16 16 11 16 10
split_gain=5257.14 1249.94 157.773 188.692 154.833 159.502 155.567 211.648 165.988 196.701 159.585 296.845 219.769 534.015
threshold=1.0000000180025095e-35 0 11.500000000000002 10.115491666666669 1 1.8464000000000003 2 75.550083333333347 3 5.04 1.553191666666667 5.5000000000000009 4.4000416666666675 22.500000000000004
decision_type=2 1 2 2 9 2 9 2 9 2 2 2 2 2
left_child=-1 4 3 -3 5 -2 7 8 9 -6 11 -8 -12 -14
right_child=1 2 -4 -5 6 -7 10 -9 -10 -11 12 -13 13 -15
leaf_value=-0.10000000000000001 -0.078231267673645966 -0.018621785816285409 -0.00090534959863914288 -0.0018989797771378281 0.0087854976164343998 0.030479347950884944 -0.083034394982808415 -0.080054187534897348 0.018445823831784967 -0.065878922773504656 0.028172337133660564 0.043231743310506353 0.013022781381666286 -0.096116655919475186
leaf_weight=1260.1073718070984 34.356152534484863 3883.807367682457 7611.2762632369995 2982.0048145055771 191.20048642158508 1885.6024739742279 111.80025327205658 87.807520687580109 545.73747944831848 163.76147544384003 2613.3356504440308 79.751509189605713 7888.6326652765274 113.69585382938385
leaf_count=1795 13 1343 2234 882 48 251 49 73 129 90 373 9 1483 54
internal_value=-8.1431e-05 0.00438454 -0.00586285 -0.0113586 0.0152008 0.0283862 0.0130196 -0.00595541 0.00126834 -0.0249578 0.0147672 -0.0304642 0.0155834 0.0114721
internal_weight=29452.9 28192.8 14477.1 6865.81 13715.7 1919.96 11795.7 988.507 900.699 354.962 10807.2 191.552 10615.7 8002.33
internal_count=8826 7031 4459 2225 2572 264 2308 340 267 138 1968 58 1910 1537
cat_boundaries=0 1 2 3 4
cat_threshold=1 4 1 37
is_linear=0
shrinkage=0.05


Tree=21
num_leaves=15
num_cat=3
split_feature=16 3 8 16 16 16 16 10 17 12 16 11 16 8
split_gain=4990.49 1131.37 153.113 146.216 145.411 188.576 478.634 300.156 185.379 294.607 181.944 308.87 281.058 194.344
threshold=1.0000000180025095e-35 0 1 1.7172833333333337 304.61764166666671 10.896691666666669 11.280575000000001 21.500000000000004 2.5000000000000004 1.0000000180025095e-35 11.440916666666668 5.5000000000000009 251.61998333333335 2
decision_type=2 1 9 2 2 2 2 2 2 2 2 2 2 9
left_child=-1 4 3 -3 5 -2 -7 10 -6 -10 -8 13 -13 -12
right_child=1 2 -4 -5 8 6 7 -9 9 -11 11 12 -14 -15
leaf_value=-0.10000000000000001 0.016730117969795379 -0.065064951628273457 -0.0021731393161226607 -0.011781609104395048 0.055450095938785762 -0.079608349399506687 0.049682564174798105 -0.069148252840190091 0.035342030472627607 -0.060774586618856555 0.032049291852043769 -0.069584507661636916 0.048679229217464974 0.0023015187635022833
leaf_weight=1198.6512660980225 9475.0276689529419 132.7757773399353 10089.562228322029 4248.1016900539398 472.48306512832642 166.99539232254028 268.21104109287262 123.52393269538879 294.36118143796921 109.3354412317276 814.92053467035294 220.7458930015564 65.039971113204956 1662.0264550447464
leaf_count=1795 1690 65 3009 1385 48 73 30 49 47 38 132 101 8 356
internal_value=-8.32839e-05 0.0041723 -0.00557248 -0.013366 0.0144857 0.0131364 0.00288477 0.00725189 0.0341913 0.00931022 0.0103655 0.00654856 -0.0426697 0.0122273
internal_weight=29341.8 28143.1 14470.4 4380.88 13672.7 12796.5 3321.46 3154.47 876.18 403.697 3030.94 2762.73 285.786 2476.95
internal_count=8826 7031 4459 1450 2572 2439 749 676 133 85 627 597 109 488
cat_boundaries=0 1 2 3
cat_threshold=1 19 3
is_linear=0
shrinkage=0.05


Tree=22
num_leaves=15
num_cat=4
split_feature=16 3 4 6 16 10 10 16 11 16 16 16 16 1
split_gain=4737.9 1024.4 148.753 145.762 413.763 241.593 266.692 255.114 237.415 267.969 357.517 193.439 462.146 192.072
threshold=1.0000000180025095e-35 0 1 2 5.2060500000000012 15.500000000000002 1.0000000180025095e-35 4.8620416666666673 3.5000000000000004 82.17665833333335 61.796650000000007 134.36264166666669 107.93626666666668 3
decision_type=2 1 1 9 2 2 2 2 2 2 2 2 2 9
left_child=-1 3 -3 4 5 6 -2 -8 13 10 -10 12 -5 -6
right_child=1 2 -4 11 8 -7 7 -9 9 -11 -12 -13 -14 -15
leaf_value=-0.10000000000000001 0.069404625021243199 0.0043051045580191826 -0.0079691776504977 0.014570029781178925 0.030281342148204687 0.05742307645598304 -0.045796777496006705 0.060201108836857489 -0.010017490892156238 -0.072381305638181112 0.078811939947344978 0.030903356091849406 -0.070294227272324428 -0.058196130703457818
leaf_weight=1140.1923877000809 110.71565139293671 3152.6588914394379 11311.933045983315 9687.6228505373001 72.161309838294983 381.91918802261353 240.78094410896301 74.275540590286255 405.17930686473846 104.47699242830276 157.22650027275085 1821.000941157341 163.1253919005394 409.00560790300369
leaf_count=1795 7 879 3580 1724 11 33 77 7 120 55 7 268 68 195
internal_value=-8.41687e-05 0.00397118 -0.00529645 0.0138081 0.00112553 0.0285501 0.00265085 -0.0208074 -0.0181587 0.00115502 0.0148157 0.0159186 0.0131647 -0.044927
internal_weight=29232.3 28092.1 14464.6 13627.5 1955.74 807.691 425.772 315.056 1148.05 666.883 562.406 11671.7 9850.75 481.167
internal_count=8826 7031 4459 2572 512 124 91 84 388 182 127 2060 1792 206
cat_boundaries=0 1 2 3 4
cat_threshold=1 48 2 2
is_linear=0
shrinkage=0.05


Tree=23
num_leaves=15
num_cat=5
split_feature=16 3 16 10 10 6 11 13 0 1 13 10 16 4
split_gain=4498.51 927.787 147.106 142.436 137.93 137.361 151.078 223.028 231.983 166.283 305.659 213.185 229.75 164.837
threshold=1.0000000180025095e-35 0 3.3965666666666672 21.500000000000004 9.5000000000000018 1 1.0000000180025095e-35 0.075600000000000014 2 3 0.057000000000000009 1.5000000000000002 3.1213000000000002 4
decision_type=2 1 2 2 2 9 2 2 1 9 2 2 2 1
left_child=-1 5 3 -3 -4 -2 7 8 -7 -10 11 -11 -13 -8
right_child=1 2 4 -5 -6 6 13 -9 9 10 -12 12 -14 -15
leaf_value=-0.10000000000000001 0.025650326342686183 -0.015214123482762153 -0.0097004520625554244 -0.084936317839894152 0.0010662087289431777 0.06096115355413298 0.012904669324885758 0.048502607297531641 0.065454990366180285 0.046810202725052735 0.015728126244302993 0.01519599367473615 -0.082767566688953118 -0.0012232362940553345
leaf_weight=1084.5844808220863 1897.5277233123779 1817.3643004894257 4834.3143577575684 76.32796323299408 7732.794130563736 219.24604213237762 6383.7497425675392 612.60922288894653 107.4640998840332 60.986305594444275 942.15427768230438 82.647095084190369 216.98181736469269 3054.4685482978821
leaf_count=1795 264 626 1556 42 2235 16 1234 52 7 7 165 16 99 712
internal_value=-8.47886e-05 0.00378011 -0.00503312 -0.0180244 -0.00307551 0.0131665 0.0111069 0.0227835 0.0131143 0.00567566 0.00074453 -0.0384021 -0.0557461 0.00834486
internal_weight=29123.2 28038.6 14460.8 1893.69 12567.1 13577.8 11680.3 2242.09 1629.48 1410.23 1302.77 360.615 299.629 9438.22
internal_count=8826 7031 4459 668 3791 2572 2308 362 310 294 287 122 115 1946
cat_boundaries=0 1 2 3 4 5
cat_threshold=1 4 4 2 11
is_linear=0
shrinkage=0.05


Tree=24
num_leaves=15
num_cat=6
split_feature=16 3 16 5 16 10 10 8 5 16 16 16 4 4
split_gain=4271.58 839.55 140.188 200.745 245.08 204.282 172.352 158.136 200.564 222.967 209.534 152.796 149.348 130.086
threshold=1.0000000180025095e-35 0 10.896691666666669 1 82.17665833333335 13.500000000000002 4.5000000000000009 2 3 6.7638333333333334 2.9534833333333337 3.3965666666666672 4 5
decision_type=2 1 2 9 2 2 2 9 9 2 2 2 1 1
left_child=-1 -2 6 4 -4 -6 12 -8 10 11 -9 -10 -3 -5
right_child=1 2 3 13 5 -7 7 8 9 -11 -12 -13 -14 -15
leaf_value=-0.10000000000000001 0.012541394433207211 -0.0082194648998010437 -0.071174762385059639 0.014311237330269939 -0.048330923406351194 0.01980553255189901 -0.023208778783230077 -0.034318280042362384 -0.015568078282532852 -0.021784808973186454 0.018826474335538839 0.009540937451671146 -0.038775899778336093 -0.0021010541183293309
leaf_weight=1031.6886720061302 13544.129144728184 833.98746120929718 197.46277630329132 2102.9273061752319 172.63685238361359 303.21101379394531 1052.4751399755478 211.61556243896484 913.70209920406342 1756.34124147892 1501.1568497419357 1798.5083969831467 792.91798210144043 2816.8616843223572
leaf_count=1795 2572 268 99 525 75 71 384 86 318 627 357 477 329 843
internal_value=-8.46521e-05 0.0035971 -0.00478426 0.0014136 -0.0239903 -0.00491427 -0.00869651 -0.00538945 -0.00231412 -0.00788797 0.0121892 0.0010821 -0.0234009 0.00492906
internal_weight=29029.6 27997.9 14453.8 5593.1 673.311 475.848 8860.7 7233.8 6181.32 4468.55 1712.77 2712.21 1626.91 4919.79
internal_count=8826 7031 4459 1613 245 146 2846 2249 1865 1422 443 795 597 1368
cat_boundaries=0 1 2 3 4 5 6
cat_threshold=1 12 9 20 49 49
is_linear=0
shrinkage=0.05


end of trees

feature_importances:
browse_to_chat_latency_minutes=141
signup_hour_of_day=41
signup_day_of_week=38
targeting_age_bucket=30
active_experiment=25
targeting_gender=19
channel=12
targeting_interest=11
channel_prior_payer_rate_subscription=11
pricing_region_at_signup=7
platform=6
n_app_opens_pre_message=5
ad_intent=3
is_organic=1

parameters:
[boosting: gbdt]
[objective: tweedie]
[metric: rmse]
[tree_learner: serial]
[device_type: cpu]
[data_sample_strategy: bagging]
[data: ]
[valid: ]
[num_iterations: 500]
[learning_rate: 0.05]
[num_leaves: 15]
[num_threads: 0]
[seed: 0]
[deterministic: 0]
[force_col_wise: 0]
[force_row_wise: 0]
[histogram_pool_size: -1]
[max_depth: -1]
[min_data_in_leaf: 20]
[min_sum_hessian_in_leaf: 0.001]
[bagging_fraction: 1]
[pos_bagging_fraction: 1]
[neg_bagging_fraction: 1]
[bagging_freq: 0]
[bagging_seed: 3]
[bagging_by_query: 0]
[feature_fraction: 1]
[feature_fraction_bynode: 1]
[feature_fraction_seed: 2]
[extra_trees: 0]
[extra_seed: 6]
[early_stopping_round: 0]
[early_stopping_min_delta: 0]
[first_metric_only: 0]
[max_delta_step: 0]
[lambda_l1: 0]
[lambda_l2: 0]
[linear_lambda: 0]
[min_gain_to_split: 0]
[drop_rate: 0.1]
[max_drop: 50]
[skip_drop: 0.5]
[xgboost_dart_mode: 0]
[uniform_drop: 0]
[drop_seed: 4]
[top_rate: 0.2]
[other_rate: 0.1]
[min_data_per_group: 100]
[max_cat_threshold: 32]
[cat_l2: 10]
[cat_smooth: 10]
[max_cat_to_onehot: 4]
[top_k: 20]
[monotone_constraints: ]
[monotone_constraints_method: basic]
[monotone_penalty: 0]
[feature_contri: ]
[forcedsplits_filename: ]
[refit_decay_rate: 0.9]
[cegb_tradeoff: 1]
[cegb_penalty_split: 0]
[cegb_penalty_feature_lazy: ]
[cegb_penalty_feature_coupled: ]
[path_smooth: 0]
[interaction_constraints: ]
[verbosity: -1]
[saved_feature_importance_type: 0]
[use_quantized_grad: 0]
[num_grad_quant_bins: 4]
[quant_train_renew_leaf: 0]
[stochastic_rounding: 1]
[linear_tree: 0]
[max_bin: 255]
[max_bin_by_feature: ]
[min_data_in_bin: 3]
[bin_construct_sample_cnt: 200000]
[data_random_seed: 1]
[is_enable_sparse: 1]
[enable_bundle: 1]
[use_missing: 1]
[zero_as_missing: 0]
[feature_pre_filter: 1]
[pre_partition: 0]
[two_round: 0]
[header: 0]
[label_column: ]
[weight_column: ]
[group_column: ]
[ignore_column: ]
[categorical_feature: 0,1,2,3,4,5,6,7,8,9]
[forcedbins_filename: ]
[precise_float_parser: 0]
[parser_config_file: ]
[objective_seed: 5]
[num_class: 1]
[is_unbalance: 0]
[scale_pos_weight: 1]
[sigmoid: 1]
[boost_from_average: 1]
[reg_sqrt: 0]
[alpha: 0.9]
[fair_c: 1]
[poisson_max_delta_step: 0.7]
[tweedie_variance_power: 1.5]
[lambdarank_truncation_level: 30]
[lambdarank_norm: 1]
[label_gain: ]
[lambdarank_position_bias_regularization: 0]
[eval_at: ]
[multi_error_top_k: 1]
[auc_mu_weights: ]
[num_machines: 1]
[local_listen_port: 12400]
[time_out: 120]
[machine_list_filename: ]
[machines: ]
[gpu_platform_id: -1]
[gpu_device_id: -1]
[gpu_use_dp: 0]
[num_gpu: 1]

end of parameters

pandas_categorical:[["Android", "iOS", "web"], ["IN", "INTL", "undefined"], ["ira_app", "telegram", "web", "whatsapp"], ["price_1_trial_499_999", "price_1_trial_89_regular", "undefined"], ["Google Ads", "Instagram Influencers", "Meta Ads", "Organic App Store", "User Invite", "YouTube Creators"], ["companionship", "curiosity_exploration", "entertainment", "language_practice", "roleplay_practice"], ["18-24", "25-34", "35-44", "45+"], ["female", "male", "unknown"], ["anime_roleplay", "companionship", "dating_advice", "gaming", "general", "language_learning"], ["not_enrolled"]]
